//Numpy array shape (80, 25)
//Min -3.60652375221
//Max 2.1417798996
//Number of zeros 0

weight_default_t w1[80][25] = {0.00801361072809, 0.0128082679585, -0.0295133143663, -0.113690406084, -0.117611117661, -0.0255123544484, -0.09432028234, -0.0496019534767, -0.0228087492287, -0.0231635626405, -0.0204027649015, 0.141644626856, -0.014057171531, 0.0772553756833, 0.0673124119639, 0.0343310274184, 0.0205663163215, 0.080720461905, -0.0162065252662, 0.0868066474795, -0.0605476647615, 0.0696317255497, 0.0905613303185, -0.439293533564, 0.064131103456, 0.891491889954, -0.112784035504, 0.20960919559, -0.0632874667645, -0.348651438951, -0.146343588829, 0.030899265781, 0.303437650204, 0.0427879393101, 0.0650282427669, 0.223034352064, -0.112596750259, -0.0148635227233, 0.364895284176, -0.497412741184, -0.144465386868, -0.311722546816, 0.335718721151, 0.336301088333, -0.0389137864113, 0.426350325346, 0.0759032294154, -0.316166907549, 0.243040755391, -0.18330283463, -0.313253343105, -0.055398311466, 0.0329030640423, 0.231759980321, 0.0281730610877, 0.340137511492, -0.269776135683, 0.0843281373382, 0.155398070812, 0.0335289388895, 0.134272322059, 0.0903435796499, -0.0150389233604, -0.000321968022035, 0.196808919311, -0.145734906197, -0.121158033609, 0.109251856804, -0.340596199036, 0.0105580873787, -0.221282407641, 0.0770555883646, -0.0133869238198, 0.0799400433898, -0.355611622334, 0.697371661663, 0.195275634527, 0.01351709757, -0.317014396191, 0.207951366901, -0.437607735395, 0.350961893797, -0.064514644444, 0.312148302794, 0.462620228529, 0.355820983648, -1.16664242744, -0.0549553930759, 0.206958681345, 0.026737133041, 0.203343242407, 0.282093793154, 0.289116889238, 0.602652490139, -0.199018478394, 0.157857164741, 0.158006712794, 0.00484929187223, 0.345829308033, 0.299646109343, 0.294365912676, 0.304795295, 0.441265970469, -0.696134090424, 0.217635527253, 0.261071801186, -0.457093566656, -0.241658881307, 0.419331133366, 0.25065022707, 0.397866070271, 0.533974051476, -0.0225149169564, 0.218225926161, 0.098260037601, 0.621544182301, 0.065104842186, 0.691411495209, 0.474712312222, 0.368001878262, -0.389473944902, -0.105774983764, 0.0378921851516, -1.05751419067, -0.231958121061, 1.03295719624, 0.435851216316, 0.266666203737, 0.914018154144, 0.167460486293, 0.425619125366, -0.760079443455, -0.313183754683, -0.584501683712, 0.655661761761, 0.655867576599, 1.96733379364, -0.0256115254015, 0.43580904603, 0.669440448284, 0.313829898834, 0.333780497313, 0.562650024891, 0.463905721903, -1.31247079372, -0.0532536432147, -0.076414488256, -0.839550554752, 0.350542366505, 0.360765039921, 0.308455437422, 0.486557155848, -0.124647326767, 0.231857895851, -0.14580821991, 0.459850162268, 0.133927300572, 0.0173842590302, 0.0527617782354, 0.178584739566, 0.296561598778, 1.10144090652, 0.00569100212306, -0.0145554635674, 0.761475920677, 0.426219522953, 0.176411226392, -0.0743730962276, -0.0250518098474, -0.498197436333, -0.170787483454, -0.0397991910577, -0.379777938128, 1.00066900253, -0.0572044998407, 0.48457467556, 0.337217450142, 0.301423698664, -0.176075264812, 0.491585344076, -0.0714898332953, 0.463847130537, 0.0352113172412, 0.378094494343, 0.475733846426, 0.262890160084, -3.22897458076, -0.0283595323563, 0.119235657156, -0.00963885616511, 0.411760598421, 0.373713046312, 0.191528394818, 0.29256400466, 0.0981537476182, -0.175193846226, 0.159157708287, 0.20973496139, -0.0862294957042, 0.384228229523, -0.00315085868351, 0.0348986163735, 0.0435873381793, 0.188420325518, -0.00990769080818, 0.032189540565, 0.065680116415, -0.0594926029444, -0.00687486678362, -0.142741441727, 0.0243804715574, -0.0398849882185, -0.0365533791482, 0.0824223011732, -0.0828831642866, 0.0163826849312, 0.0164379235357, 0.0342129655182, -0.0789004415274, 0.149130284786, 0.0673118084669, 0.0328253656626, -0.165816679597, 0.0190255828202, -0.000183101627044, 0.0206937789917, -0.221474260092, 0.260169059038, -0.207615420222, -0.262994110584, 0.448680341244, -0.181488022208, 0.217556983232, -0.00694457162172, -0.132714882493, -0.0201679617167, 0.00515544880182, 0.00469767581671, 0.0561214759946, -0.377660244703, -0.430193603039, 0.332814455032, 0.269158661366, 0.410297960043, 0.226183250546, 0.6597905159, 0.121541723609, -0.0136070214212, 0.0978530049324, 0.0583649240434, -0.267247587442, -0.00779912760481, -0.342053949833, -0.190878629684, -0.382109969854, -0.11691069603, -0.0183480791748, -0.401441723108, -0.0709166154265, 0.161319240928, 0.0676858872175, -0.198791831732, 0.00515043130144, 0.109941892326, -0.362584739923, -0.487109094858, -0.0878878682852, 0.108145140111, -0.156004622579, 0.251455634832, 0.487018615007, -0.0357296206057, -0.178367570043, -0.257633805275, 0.0739796534181, 0.518843591213, 0.219676315784, 0.290857940912, 0.0840460211039, 0.0543469302356, -0.63864082098, 0.166649162769, -0.0555320568383, 0.285499870777, 0.52047765255, 0.372501194477, -0.00213097222149, -0.0656222775578, 0.371660172939, 0.34123596549, 0.244913443923, 0.208458304405, 0.363559544086, 0.639063894749, -0.0389660708606, -0.132925331593, -0.0160436872393, -0.487841099501, 0.291856020689, 0.264670759439, 0.389010220766, 0.524671435356, 0.393704235554, 0.232650950551, 0.583772361279, 0.293034046888, 0.603908836842, -0.122429534793, 0.377341836691, 0.184221699834, 0.673608601093, -0.0988678485155, -0.0107112023979, 0.119810171425, 0.878022551537, 0.0485842898488, 0.365483641624, 0.412659168243, 0.250056028366, 0.394900262356, 0.377675801516, 0.207217484713, 0.488710343838, 0.603671789169, 0.0942044481635, -0.0102759981528, 0.968372344971, -0.0876529812813, -1.87485587597, 0.144822433591, 0.246849328279, 0.341369569302, 1.34979856014, 1.20474505424, -1.01888537407, 0.848125338554, -0.279715716839, 0.0271965768188, 0.290063202381, 0.0412765368819, 0.105884283781, 1.33474063873, 0.457884192467, 0.122953258455, -0.540430545807, 0.525405526161, -0.549286663532, 1.592274189, 1.08441126347, -1.07551884651, 0.638075590134, 0.654233455658, 0.152312353253, -0.463597029448, 0.383153885603, 0.324763685465, 0.379868865013, 0.0223417188972, 0.500613927841, -0.88926666975, 0.438961029053, -0.154599711299, 0.0119881452993, -0.567961215973, 0.573993444443, 0.511040151119, 0.258666336536, -0.601655483246, -0.222776800394, -0.61755412817, 0.486618429422, -0.0724874287844, 0.784537017345, 0.123229786754, 0.0613166838884, 0.379323393106, 0.152444899082, -0.103349946439, 0.0625975653529, 0.119587853551, 0.11486325413, 0.151896759868, -0.181033834815, 0.0650257393718, 1.060734272, 0.127201557159, 0.0832371711731, -0.00719522405416, 0.553078353405, -0.258365809917, 0.492062985897, 0.248394429684, 0.585044264793, 0.472150266171, 0.113900460303, -0.855034053326, 0.225024953485, -0.734972596169, 0.270997226238, 0.238071769476, -0.039208419621, -0.150139838457, -0.106239803135, 0.0187561735511, 0.00157573539764, -0.0719817355275, 0.0586554408073, -0.00695610232651, 0.0244229882956, 0.0266253463924, -0.0435966849327, -0.00905434042215, -0.0429848358035, 0.0459375567734, -0.0860280692577, 0.0275808405131, 0.0241556055844, 0.0251865386963, -0.0551245622337, -0.0649128928781, 0.0758782401681, -0.391919255257, 0.0966349765658, 0.0249714702368, 0.0831490308046, -0.258479803801, 0.113015003502, -0.205835700035, -0.0334934666753, -0.556660532951, -0.381488382816, -0.111284673214, 0.00211533321999, -0.153127744794, -0.163417220116, 0.222020432353, -0.126723900437, -0.0374296717346, 0.210226386786, 0.211147576571, 0.126582428813, 0.121930420399, 0.134866014123, 0.215135142207, -0.0576356574893, 0.223116263747, 0.0283629260957, -0.0938558354974, -0.250560343266, -0.123108163476, -0.570644617081, 0.157984763384, 0.525801479816, 0.25149166584, 0.176288485527, -0.0457080863416, -0.124191455543, -0.0617064125836, 0.182951852679, 0.288471549749, 0.0472443290055, 0.0936320945621, -0.0126362638548, -0.0311072096229, -0.0181039348245, 0.0868487134576, 0.0226401910186, 0.155703544617, 0.388338148594, -0.128660127521, 0.3492795825, 0.511468172073, 0.332747161388, 0.146190598607, 0.232860594988, 0.167179092765, 0.568405508995, 0.176808252931, -0.0116591956466, -0.0989342108369, -0.523887336254, -0.0589279048145, -0.156610071659, 0.15269087255, 0.218752458692, 0.422418296337, -0.358002603054, -0.00848284456879, 0.472843706608, 0.274282455444, -0.0039403475821, -0.0528797507286, 0.437978595495, 0.619361281395, -0.217412009835, -0.231274455786, 0.374928563833, 0.0679925605655, 0.15883025527, 0.286527752876, 0.352450549603, -0.243679597974, 0.646980941296, 0.143800243735, 0.30974432826, -0.220997735858, 0.204646036029, -0.159026429057, 0.607161641121, 0.796960711479, -0.197048649192, -0.231589868665, -0.00313178868964, 0.118645578623, 0.0403950884938, 0.448013156652, 0.443495750427, 0.309374213219, -0.44679749012, 0.0445860773325, 0.435749650002, -0.91859036684, 0.237137660384, 0.251464545727, 0.433669954538, 0.144942358136, -2.15906333923, 0.796394646168, -1.88624596596, 0.713864266872, -0.256296396255, 0.40464219451, 0.26939868927, 0.929243266582, 1.20971930027, -0.175995439291, 0.873561382294, 0.0204379670322, 0.000705755257513, -0.569413006306, 0.744947612286, 1.00906658173, 0.0798357352614, -0.679309129715, 0.713927149773, 0.452912688255, 0.929441154003, -1.01549696922, 0.354881316423, 0.13756968081, 0.64526027441, -1.75979208946, -0.389033734798, -0.362881630659, 0.532689213753, 0.467623233795, 0.695169866085, 0.118781641126, 0.523005962372, 0.390127927065, -0.3236528337, 0.202278062701, -0.0640874505043, -0.353692233562, 0.299901545048, 0.334407895803, 0.504521131516, -0.314316660166, -0.640418946743, 0.311830461025, 0.580102801323, 0.346614003181, -0.491606235504, 0.122549556196, -0.249559238553, 0.205530002713, 1.03782010078, 0.383328646421, 0.105092845857, 0.23253595829, 0.130976587534, 0.163221240044, -0.169830992818, -0.139187291265, 0.0821555256844, 0.423191875219, -0.452749878168, -0.0633750259876, 0.458909094334, -0.0219493191689, 0.303852081299, -0.199939727783, 0.552172899246, 0.510318934917, -0.117227807641, -1.01078307629, -0.0521816499531, 0.425338417292, 0.384870439768, 0.382608771324, -0.0253503303975, 0.0412218123674, -0.120283700526, 0.102751880884, 0.00307529303245, 0.021711345762, 0.0506648011506, -0.0424821227789, 0.0282608196139, -0.00155719299801, -0.0960037559271, -0.0180095247924, -0.0405571162701, 0.0602130666375, -0.015927195549, 0.0272903069854, -0.116976968944, 0.0498575493693, 0.0388908945024, -0.263220667839, 0.0486471988261, 0.156509205699, 0.0666995570064, 0.0270973034203, -0.00921005755663, 0.273231297731, 0.167316928506, -0.150189355016, -0.145386651158, -0.125312671065, -0.798476874828, -0.0266037546098, 0.0275755301118, -0.223513200879, 0.351848840714, 0.151532635093, -0.169866457582, -0.0157300829887, -0.0437933467329, 0.289197415113, 0.226003095508, -0.065407410264, 0.132774353027, 0.0448876395822, 0.0129196336493, -0.248604789376, 0.481001973152, 0.0773734077811, -0.245587512851, -0.122782543302, -0.514642238617, 0.243937566876, 0.193833500147, 0.336706340313, -0.155127316713, 0.259903162718, 0.0372020415962, 0.243906244636, -0.206089168787, 0.0115179140121, -0.264685213566, 0.1577873528, -0.0230469238013, -0.339956611395, -0.485256373882, -0.203070119023, 0.18635725975, -0.181274101138, -0.330288141966, -0.0626880377531, -0.396622270346, 0.138021096587, 0.190934300423, 0.0182426534593, -0.131260231137, 0.3181848526, 0.151944473386, 0.113863989711, -0.206028446555, 0.166648522019, -0.846427083015, 0.139463469386, -0.064781114459, 0.0134113905951, 0.285849571228, 0.476021528244, -0.18792013824, -0.0612435080111, 0.234786480665, 0.269429713488, 0.105996474624, 0.398182749748, 0.139122754335, 0.0531610026956, -0.146681636572, 0.0523467101157, 0.269876986742, -0.133352428675, 0.309333622456, 0.289048969746, 0.280600070953, 0.390965938568, 0.219072818756, -0.0199647601694, 0.541306376457, 0.0765580832958, 0.301974058151, -0.162805780768, 0.258476316929, 0.360776096582, -0.0465032830834, -0.166783958673, -0.0028262110427, 0.264874339104, -0.233336269855, 0.542874753475, -0.057050421834, 0.625753641129, 0.559245109558, -0.336234301329, 0.298598706722, 0.65302926302, -0.0343759320676, 0.302859157324, 0.0358858108521, -0.0118431821465, 0.806087195873, -0.0156668834388, -1.89013624191, 0.0862311199307, 0.514104783535, 0.576557278633, 0.31506550312, 1.38498044014, 0.511841058731, -1.07178390026, 0.203974917531, 0.00375983049162, 0.592819571495, 0.829956710339, -0.281996488571, -0.997436344624, 0.220299825072, 1.36433529854, 0.934043943882, 0.439934492111, -1.15532541275, -0.239130854607, 0.697361171246, 0.913029193878, 0.38530009985, 0.313907533884, -0.103903740644, -0.532249510288, 0.134599536657, 0.593070089817, 0.431181997061, -0.129687994719, 0.663510918617, -0.0431612245739, -1.23066878319, 0.044905424118, -0.0478170327842, -0.156636849046, 0.301072239876, 0.0134900640696, -0.846664965153, -0.0647593215108, 0.536857664585, 0.986341655254, 0.199657037854, -0.585886478424, -0.460267603397, -0.0104839066043, 0.157721742988, 0.34091052413, 0.142971619964, 0.458015799522, 0.260544806719, 0.209559082985, -0.0221179015934, 0.226157814264, -0.101334482431, -0.0518588796258, 0.313951194286, 0.933223009109, -0.226201236248, -0.0130376107991, 0.370040744543, 0.139691233635, 0.521481990814, 0.773134708405, 0.526419520378, -0.378419071436, 0.0409200564027, -0.68219357729, 0.534212887287, 0.190719947219, 0.158169224858, 0.170654296875, -0.00602911645547, -0.0301369782537, 0.0831058323383, -0.162073761225, 0.0269472114742, 0.00605232873932, -0.185115799308, -0.037836086005, -0.048011329025, 0.0399999208748, 0.0359009131789, -0.0654736086726, -0.0298216436058, 0.0527384579182, 0.0619741268456, -0.000638347642962, -0.116420790553, -0.0115920882672, -0.0655851364136, 0.0700759142637, 0.0446819402277, 0.0180300157517, 0.0426302328706, 0.0652311742306, -0.282375395298, -0.285327166319, 0.344510227442, -0.380670309067, 0.184761688113, -0.233135908842, 0.0548318848014, 0.00915613956749, -0.0783985629678, -0.16293130815, 0.0311160180718, -0.300562739372, 0.185462072492, 0.0402251593769, -0.122264631093, 0.54527670145, -0.321255415678, 0.0827586427331, -0.15276043117, -0.636361658573, 0.131691530347, 0.145993158221, -0.25661149621, 0.0134108643979, -0.202596023679, 0.0413519479334, 0.265194535255, -0.0450993515551, 0.242791637778, 0.0416460596025, 0.159395262599, 0.30271717906, -0.12263482064, -0.0496931634843, 0.399101883173, -0.0895626395941, 0.200044453144, 0.064352735877, -0.00858674570918, 0.0729452297091, 0.111948288977, -0.326911687851, -0.0488782972097, 0.245821192861, -0.0225266329944, 0.329119920731, -0.00541122723371, 0.0779630318284, 0.0469868592918, 0.195979863405, 0.167060911655, 0.311740338802, 0.0181264113635, 0.0349656492472, 0.0770270749927, -0.00708348816261, -0.364525288343, 0.380602836609, -0.22532504797, 0.261121839285, -0.166827857494, 0.0417195111513, 0.0504800416529, -0.0560054779053, 0.397172927856, 0.0781960785389, 0.170552894473, 0.214437410235, 0.30449166894, 0.180020257831, 0.0889998078346, -0.266285389662, -0.145402103662, 0.0392747335136, 0.0988177284598, -0.311714977026, 0.432397335768, -0.223752319813, 0.466830044985, 0.163773298264, 0.790326535702, -0.0032001931686, -0.294497966766, -0.155063778162, 0.216013267636, -0.0661007761955, -0.0225870348513, -0.0120565230027, -0.0542548336089, 0.0347502157092, -0.379694074392, -0.423738092184, 0.100764140487, 0.512600719929, 0.327555984259, 0.0324411801994, -0.537225961685, 0.0779543295503, -0.262772202492, 0.0320433564484, -0.647503972054, 0.343206137419, 0.797539710999, 1.58430922031, 1.12430274487, 1.41175079346, 0.149250850081, -0.850366055965, -0.315943092108, -0.44394376874, 1.08113801479, 0.578195095062, -0.0804591998458, -0.0133602600545, 0.846317708492, 1.09208321571, -0.186407804489, -1.62680125237, 0.971077740192, -0.37200653553, -3.60652375221, 0.850132167339, -0.0441927574575, -1.27018845081, -0.2387881428, 1.12779772282, 0.241218149662, 0.134106844664, 0.278851211071, 0.744062542915, 0.497862607241, 0.367228627205, -0.454873204231, 0.0584194213152, -0.00097039132379, 0.558631777763, 0.487964779139, 0.160552412271, -0.0146336443722, -0.254884392023, 1.03365409374, 0.106456689537, -0.871156871319, -0.124646373093, -0.498439460993, -0.513481497765, 0.46114680171, -0.196560412645, -0.471380710602, -0.202455341816, 1.25671124458, 0.326732516289, 0.137933120131, 0.0907733365893, -0.142051666975, -0.0479099713266, 0.146122694016, 0.809967756271, 0.0238783564419, 0.239735737443, -0.291491419077, -0.269484966993, 0.0983798056841, 0.00253324978985, 0.504713654518, -0.27316185832, 0.356252878904, 0.744397222996, 0.53719073534, 0.198024556041, 0.306215137243, -0.566293537617, 0.116338066757, 0.340212672949, 0.361313968897, -0.369411498308, -0.00789775606245, 0.0533420816064, 0.0754228830338, 0.164526611567, 0.0866697579622, 0.181533813477, 0.101576037705, -0.0453045479953, -0.135591775179, 0.0204007793218, -0.0170394722372, -0.0341258943081, -0.0101599227637, -0.00314848241396, 0.0643624141812, 0.00965212378651, 0.070751234889, 0.0712532550097, 0.0139399953187, 0.118566602468, 0.0556296519935, 0.0839063674212, 0.0917271003127, 0.0878495499492, 0.0163016598672, -0.219217702746, 0.0717431008816, 0.227455601096, 0.0477094091475, -0.307784855366, 0.034789275378, 0.137827768922, -0.354177355766, 0.0908964201808, -0.074140354991, -0.260768443346, -0.0783915147185, -0.0321820937097, 0.116626568139, 0.695136547089, -0.312898039818, 0.62743294239, 0.0339529439807, 0.147501692176, -0.0166905485094, 0.369337320328, 0.207318902016, 0.236475616693, 0.258793920279, 0.246516361833, -0.22129483521, 0.402948558331, -0.130608454347, -0.0124876657501, -0.210654199123, -0.0523001402617, 0.249881789088, 0.140376076102, 0.0445458739996, 0.0243439748883, -0.0646036490798, 0.0272956639528, 0.00156346953008, -0.0953757762909, -0.347364902496, 0.19181753695, 0.0133028961718, 0.118064209819, 0.0912251099944, 0.614993929863, -0.40801730752, 0.172697275877, 0.0138451028615, -0.203998282552, -0.13196760416, 0.576088070869, -0.0691795870662, 0.340394943953, -0.163441836834, 0.45003798604, -0.20105932653, 0.355087250471, -0.0337054096162, 0.53155630827, -0.0291295573115, 0.244561374187, 0.136168882251, -0.0604142062366, 0.588938057423, 0.291358470917, -0.2261505723, -0.105037659407, 0.48333388567, 0.258689910173, -0.254418134689, 0.0542241111398, -0.0903084501624, -0.0956664681435, -0.328698903322, 0.0338662192225, 0.172038987279, 0.166846260428, 0.426903039217, -0.282372325659, 0.764046311378, -0.404732435942, 0.617997348309, -0.131029710174, 0.551197290421, 0.0678334087133, 0.261680990458, 0.0456841997802, 0.0125469807535, 0.125295102596, -0.534253180027, 0.0207435227931, -0.318667113781, 0.615711987019, 0.0413900986314, -0.369370490313, -0.382565319538, 0.33227533102, -0.400822371244, 0.129138618708, -0.141037762165, 0.120177023113, 1.01796197891, -0.275136142969, -1.5200138092, 0.196092635393, 1.05543804169, 0.263591915369, 0.153004139662, -0.712069690228, 0.779158771038, 0.0720253884792, -0.744408905506, -0.0275006443262, -0.171417057514, 0.0751163363457, 0.709166824818, 0.724287629128, -0.21980074048, 1.20213913918, -0.557383060455, 0.340027779341, -0.398687809706, -0.534128248692, 1.04921245575, -0.286594033241, 0.00644386932254, -0.146294265985, -0.0124381454661, -0.860113978386, -0.286211580038, 0.492102831602, 0.191487953067, 0.153889119625, -1.34958469868, 0.166017502546, -0.765812039375, 0.0722395554185, -0.00356500595808, 0.0434488132596, 0.0399234741926, 0.270677626133, 0.548144102097, -0.120507925749, 0.188380599022, -0.497922182083, 0.948541283607, -0.681398868561, -0.786522388458, -0.541667044163, -0.0964354351163, 0.461123228073, 0.0578864403069, 0.70555126667, 0.0122487219051, 0.771718561649, 0.245787724853, 0.443200856447, 0.00793733168393, 1.24558079243, 0.0828977972269, 0.302632719278, -0.0537302233279, -0.025209331885, 0.529954135418, 0.538404166698, -0.270420879126, -0.0742792785168, 0.764856874943, -0.470812410116, 0.187778800726, -0.565245449543, 0.0570150762796, 0.148376122117, 0.19375385344, 0.131632983685, -0.0151196951047, -0.00941674783826, 0.0160280428827, -0.202988937497, 0.063704021275, -0.033118955791, -0.0149347009137, 0.148191839457, 0.000491093378514, -0.0135128069669, 0.000149251107359, -0.0336786806583, -0.0015952255344, 0.0982578545809, -0.0255433637649, 0.00146460765973, -0.030825028196, -0.0129846250638, 0.00822462979704, 0.0352985560894, -0.0158917829394, 0.0519113056362, 0.0356997363269, 0.166742116213, 0.0458809696138, -0.0765210986137, -0.514165461063, -0.037245631218, -0.363596796989, -0.0398392863572, 0.12885324657, -0.0719032734632, 0.145606085658, 0.144518762827, 0.084031522274, 0.420256853104, -0.0770252346992, 0.036070201546, 0.178244754672, 0.191295713186, -0.10586977005, 0.00937352329493, 0.152269482613, 0.495069533587, -0.149785012007, -0.522608220577, 0.0152363134548, 0.0185975711793, -0.00483339466155, -0.0668623298407, -0.496096730232, -0.238894805312, -0.261372745037, -0.315191507339, -0.145632728934, -0.121017202735, 0.235723033547, 0.0632645785809, 0.0937406569719, -0.224079981446, -0.308328658342, -0.0849980264902, -0.0157785322517, -0.299652993679, 0.14726434648, 0.300619900227, 0.48561707139, -0.234265804291, 0.778601050377, 0.263876080513, -0.71179407835, 0.0626230314374, -0.101410605013, 0.263893693686, -0.251010268927, 0.126130521297, 0.0851797312498, 0.362236648798, -0.118945300579, 0.33937934041, 0.167280912399, 0.291504144669, -1.4478610754, 0.270379751921, -0.0831883475184, 0.135309264064, 0.0157349593937, -0.0377841927111, 0.485553443432, 0.174188688397, -0.217643618584, 0.111231930554, 0.589197099209, 0.276222705841, -0.294706165791, 0.259549587965, 0.0366159118712, -0.353918254375, 0.00230160192586, 0.0885654240847, 0.254710704088, 0.111106611788, 0.334091812372, -0.47061342001, 0.679034650326, 0.84447658062, 0.425355017185, -0.039301276207, -0.106721878052, 0.22846531868, -0.127850845456, 0.0803430378437, -0.0448813475668, 0.286628216505, -0.091613098979, -0.0145266233012, 0.214840009809, 0.72975307703, -0.0671027377248, -0.160000771284, 0.381373167038, 0.0389001071453, -0.0625155717134, 0.146012380719, 0.117182686925, 0.653663873672, 0.473437130451, 1.17597448826, -0.690828979015, 0.992689311504, 0.139902368188, 0.856776297092, 0.928941249847, -0.258657425642, 0.379172563553, 0.763068974018, 0.249519914389, 0.0180711392313, 0.673340141773, 0.239692553878, 0.505936682224, 0.56623506546, 1.4131166935, 0.250596612692, -3.2801887989, 1.72610449791, 0.195535197854, -0.308786004782, 0.258700758219, -1.0041655302, 0.310253530741, -0.00020423749811, 0.103114187717, 0.0641607344151, 0.0571510978043, 0.46628600359, 0.380916148424, 1.47512757778, -0.042261954397, -0.313312828541, 0.154650658369, -0.0657316148281, -0.0605500862002, 0.627873122692, 0.83262360096, -0.00520995724946, -0.21785479784, 0.0745581835508, 0.375018447638, -0.356261461973, 0.242736950517, 0.0391518883407, -0.317488402128, -0.626952707767, 0.00579165574163, 0.492519766092, 0.281692683697, 0.563952147961, -0.261187821627, 0.60304749012, 0.357269257307, 0.261762559414, -2.54170966148, 0.296822965145, 0.235673338175, -0.169411197305, -0.172568753362, -0.0461578592658, 0.318798840046, 0.0469158515334, -0.23607070744, 0.234662055969, 0.819928705692, -0.273696005344, -0.151805356145, 0.143583193421, -0.0314865410328, -0.161068499088, -0.0382952280343, 0.264545708895, -0.0234860926867, -0.0434508882463, 0.0209213849157, 0.0979451909661, -0.134491309524, -0.00494727864861, 0.00819401722401, -0.0554246939719, -0.0179953351617, -0.00844426359981, -0.0761001706123, -0.0506541058421, -0.0600710883737, 0.0410858169198, -0.0358658842742, -0.00482562743127, 0.00929454248399, 0.0270344223827, -0.0752199590206, 0.00304671609774, -0.0683678761125, -0.129658773541, 0.0892165154219, -0.0759830102324, -0.20659096539, -0.0570506826043, -0.13515265286, -0.272349387407, -0.144082129002, -0.0520043857396, -0.190170869231, -0.286615490913, -0.00640566088259, -0.248976022005, 0.000621074228548, -0.512642025948, -0.288174241781, -0.0262920837849, -0.216403052211, 0.169737964869, -0.328429877758, -0.223563268781, -0.368711054325, 0.79732042551, -0.477053016424, 0.017847886309, -0.708851873875, -0.0452205464244, -0.271804898977, 0.383657515049, 0.340506494045, -0.00040255652857, 0.0471563525498, 0.320472598076, 0.0432487018406, -0.240318492055, -0.287675768137, 0.0812049657106, 0.0905039906502, -0.497729241848, 0.327597498894, 0.0512931644917, -0.0124713620171, -0.193609565496, -0.459660470486, -0.184417083859, -0.176743030548, -0.201284274459, -0.0658548474312, -0.0798371508718, 0.0782163590193, 0.116525642574, -0.273137867451, -0.318701446056, -0.586476325989, 0.11243994534, 0.0150099722669, 0.324317425489, 0.0629139021039, 0.415704190731, -0.00347959436476, 0.201713517308, -0.103397332132, -0.153407722712, -0.0710520148277, 0.185297474265, 0.025104124099, 0.0318143218756, 0.259408384562, 0.216334939003, -0.413283348083, 0.168132945895, 0.325315564871, 0.0950563326478, -0.344476848841, -0.0550620928407, -0.0354317501187, -0.199141800404, -0.0295160338283, -0.00804041046649, 0.259952425957, 0.0627296790481, 0.230404153466, 0.141323596239, 0.472280174494, -0.0460406020284, 0.0246674381196, -0.0463570170105, 0.0291687566787, 0.496119767427, 0.148333072662, 0.217169314623, -0.0457342639565, 0.787087202072, -0.25666731596, 0.118366844952, 0.345354259014, 0.70923525095, 0.355080246925, -0.0704546421766, -0.161625504494, 0.493452310562, -0.280217438936, -0.107186473906, -0.280562162399, -1.59605062008, 0.273711889982, 1.20122981071, -1.46693849564, 0.230705469847, 0.451265215874, 0.852428734303, -0.120522044599, 1.0824072361, 0.707020878792, -1.27429556847, -0.335419178009, 0.0411671958864, 0.573317945004, -0.304877609015, -1.78779697418, -0.12334933877, 0.713398754597, -0.487705558538, -0.00396538106725, 1.21696138382, 1.07547402382, -1.04592585564, 0.508135378361, 0.0396386533976, 0.516154110432, 0.320468395948, 0.445741266012, -0.827976047993, -0.0631614029408, 0.334509909153, 0.918453872204, 0.289865225554, 0.281308948994, 0.504561007023, -0.24062268436, 0.143952026963, 0.0118563426659, 0.271493673325, 1.03985488415, -0.528706073761, 0.243857696652, 0.618346691132, -0.332762151957, -0.366085350513, 0.192705869675, 0.740523219109, -0.700133383274, 0.558311402798, 1.81663513184, 0.297254472971, -0.0717210769653, 0.140469193459, 0.12980774045, 0.732044816017, 0.297657757998, -0.245012447238, -0.154698967934, -0.0537616834044, -0.0281731598079, 0.24734133482, 0.067576430738, 0.0212547238916, 0.393203109503, 0.250538051128, -0.135276287794, -0.0375312976539, 0.592039763927, 0.228604540229, -0.364647090435, 0.401472806931, -0.223876923323, -0.0742661654949, -0.302442789078, -0.0811357572675, -0.00389956240542, -0.00588315166533, 0.0407782867551, 0.0839392021298, 0.0315479747951, -0.117226555943, 0.063241250813, -0.0707583427429, -0.0486139431596, 0.00749483518302, 0.00964112393558, -0.0514532327652, -0.0255691334605, 0.0154133904725, -0.0209208820015, -0.382949501276, 0.00396610889584, 0.00754497107118, -0.0379404351115, 0.149459809065, -0.00948065146804, -0.0939263701439, 0.0529975518584, 0.0304661616683, -0.0446983017027, -0.0509875379503, 0.138389930129, -0.175425902009, 0.367846220732, -0.366452097893, -0.601816833019, -0.00907572358847, 0.163328573108, -0.0230478495359, 0.484783500433, -0.3888463974, -0.353405296803, -0.0409026071429, -0.178719729185, 1.19757568836, 2.01491618156, 0.372401118279, -0.294217765331, -0.142472937703, 0.255454689264, -0.415009796619, -0.00100932479836, 0.0861326232553, -0.464420497417, -0.236416488886, -0.29434338212, -0.0185988862067, -0.0433545708656, -0.237781584263, -0.201958745718, 0.35749143362, -0.351862877607, -0.146460473537, -0.213718697429, 0.426143050194, -0.0581271797419, 0.090062096715, 0.00976922549307, -0.0947533994913, 0.426870107651, 0.414063721895, -0.0489883720875, 0.0847011730075, -0.594923138618, -0.303044259548, 0.219307884574, 0.333363264799, -0.0700964108109, -0.548463582993, 0.265899151564, 0.0386621430516, 0.131088808179, 0.199126183987, -0.0948017016053, 0.366532444954, -0.00267742294818, 0.0905302986503, 0.0056430818513, 0.181404411793, 0.146190971136, 0.00489356741309, 0.130268931389, -0.00337194022723, 0.28538659215, -0.051233291626, 0.0347217172384, 0.15411734581, 0.316184312105, 0.211912572384, 0.222215861082, 0.322177559137, 0.216464430094, -0.149886146188, -0.0242498107255, 0.348436266184, 0.391234219074, 0.339132219553, 0.313111484051, -0.510465860367, 0.646574914455, 0.389052838087, 0.00438060518354, -0.28126180172, 0.338906556368, 0.344872891903, 0.426286220551, 0.157153666019, -0.0382426641881, 0.558740258217, -0.360451906919, -0.3838776052, -0.316892772913, 0.966540694237, 0.306686222553, 0.0201638434082, 0.715129196644, 0.377552717924, 0.265902817249, 0.724048852921, 0.250957965851, -0.81997615099, -0.383787870407, 1.09049630165, -0.695034742355, 0.841508090496, 0.383718967438, 0.282707124949, 1.61782753468, 0.769445598125, 0.76262229681, -0.357650905848, 0.857545554638, 0.0260617509484, 0.842557787895, -0.601380705833, 2.1417798996, 0.154279485345, 1.20823132992, 0.32095760107, -0.606336653233, -0.0494742058218, 0.890262365341, 0.0445488989353, -1.47896385193, 0.438010156155, 0.473360031843, -0.0207896810025, -0.0248881690204, -0.476270467043, -0.0425576120615, -0.478698939085, 0.037559479475, -0.128060504794, 0.291288882494, 0.464365452528, 0.0613061338663, 0.243184685707, 0.0175965242088, 0.0777516886592, 0.423914015293, 1.21728467941, -0.0869810134172, 0.154101833701, 0.233482554555, -0.894040882587, -0.191648855805, 0.786981403828, -0.134554624557, -0.399718433619, 0.209215819836, 0.444495022297, 0.113859400153, 0.418851137161, 0.169562205672, 0.36456900835, 0.455823302269, 0.172926396132, 0.0862978026271, 0.354531347752, 0.147927805781, -0.114250846207, 0.0936315134168, -0.0168669037521, 0.454613208771, 0.186738923192, -0.451606422663, -0.111166313291, 0.689565598965, -0.475468486547, 0.104333236814, 0.246655628085, 0.0788267627358, -0.126867815852, 0.0656844452024, 0.272523373365, -0.638419806957, 0.00738999433815, -0.152151480317, -0.0252558849752, 0.00458094850183, -0.0175178050995, -0.0415529236197, -0.0443774163723, -0.0697039738297, -0.0807867348194, -0.0500921532512, -0.0610687509179, -0.048795580864, 0.00468305172399, -0.0202876124531, -2.72283959389, -0.00310237309895, 0.0428474098444, -0.425163805485, -0.0473427064717, -0.0352783948183, 0.0094788428396, 0.0241755265743, -0.110293880105, 0.0289240796119, -0.520798444748, -0.433584809303, -0.274888336658, 0.254475533962, -0.26526504755, 0.161981105804, -0.191343098879, 0.342819035053, 0.335480213165, -0.366667628288, 0.460213899612, 0.104570426047, 0.032077010721, -0.296756714582, 0.544573783875, 0.260367304087, -0.378253132105, -0.392294853926, -0.101642139256, -0.832082390785, -0.450805991888, -0.536080181599, -0.0419185571373, 0.281785666943, 0.251411378384, 0.178467348218, 0.153499171138, -0.0964894071221, -0.275527834892, 0.0565504617989, 0.11136803031, 0.315990716219, 0.753040015697, -0.304834723473, 0.0253492388874, -0.82574236393, -0.563588380814, 0.0144079253078, -0.172661080956, -0.661391317844, -0.00521182315424, 0.326883971691, -0.279477506876, -0.99167072773, 0.0618799626827, -0.554434001446, 0.361415416002, -0.11600523442, 0.0201030429453, -0.664213418961, -1.4705709219, 0.21666456759, 1.02548599243, -0.134088605642, 0.587890625, -0.53201597929, -0.000660288962536, -0.0533940717578, -0.361377984285, 0.075122371316, 0.182983487844, -0.439301341772, -0.0136125320569, 0.885376572609, -0.123782813549, -2.31466579437, -0.0275806970894, 0.814745426178, 0.0163929369301, 0.401782304049, -0.117428429425, 0.0895525738597, 0.15285526216, -0.103888012469, -0.13759970665, -0.074343085289, 0.0208721850067, 0.538528382778, 0.333287775517, 1.12549042702, -1.20807492733, 0.501733601093, -0.117610186338, 0.130706146359, 0.492157995701, -0.134643360972, -0.445956856012, 0.0181946996599, 1.01859760284, -0.662583470345, -0.900121748447, 0.248096570373, 1.33563137054, -1.13412439823, 0.164056450129, -0.629345774651, 0.20060749352, 0.31197988987, -0.4122851789, -0.310266286135, 1.13617825508, -0.0283561684191, 0.0985653102398, 0.503921687603, 0.8562104702, -0.38784173131, 0.566842079163, 0.492617726326, -0.867206633091, 0.486727714539, 1.71050679684, -0.0808945819736, -0.036768566817, 0.397337973118, -0.118781715631, -0.71389746666, 0.965386211872, 0.42249545455, 0.0754541754723, -2.33241057396, -0.677473187447, -0.0289249103516, -0.892280995846, 0.633241653442, -2.27876377106, 0.0558184795082, 0.289988458157, -0.497635424137, -0.0173775590956, 0.942640304565, -0.00314310169779, 0.535356104374, 0.352421313524, -0.151234403253, 0.0556700862944, -0.343100816011, -0.142023846507, -0.000264514965238, 1.01539814472, 0.6138458848, -1.60846424103, 0.00579182431102, 1.18609559536, -0.99574047327, 0.135432571173, -0.24141998589, 0.160462111235, -0.341761410236, 0.273393422365, -0.138026192784, -0.6565066576, -0.115915007889, 1.25443816185, 0.0859575346112, 0.417506605387, 0.0538267567754, 0.269067853689, -0.255756825209, 0.0248925816268, 0.602957606316, -0.0910010933876, 0.0617289282382, -0.0386108234525, 1.14530599117, -0.136765167117, -1.7858723402, -0.33589977026, 1.24136579037, -0.11364133656, 0.0817230641842, 0.20666770637, 0.230298981071, 0.206189543009, -0.680108070374, 0.177067533135};
