//Numpy array shape (25, 25)
//Min -1.0508108139
//Max 0.655485332012
//Number of zeros 0

weight_default_t w2[25][25] = {-0.00248590856791, -0.0654525458813, 0.0131997512653, -1.0508108139, 0.281296223402, 0.0877962708473, 0.0146704735234, -0.0265518259257, 0.117915712297, -0.0285390596837, 0.204234719276, -0.267185986042, 0.216832742095, -0.117099769413, 0.0509785674512, 0.03280030936, 0.217196151614, -0.0523904450238, -0.0610439479351, -0.0200360529125, 0.158218562603, -0.031923700124, 0.0318685173988, -0.029898583889, 0.024501113221, -0.00963685661554, -0.0274381730705, -0.0294295847416, -0.0268695838749, 0.163627237082, 0.351842135191, 0.427830547094, 0.415307939053, 0.300830304623, 0.469258517027, 0.378657907248, 0.0155949257314, 0.432281792164, 0.231384694576, 0.258701741695, 0.253871202469, 0.13290527463, -0.00153089559171, -0.0300773922354, 0.312671035528, 0.293597877026, -0.0224282238632, 0.350324481726, -0.030341733247, 0.417896956205, -0.0268041025847, 0.0129150534049, 0.0169050469995, 0.211282119155, -0.0101384427398, -0.114111758769, 0.01042685844, -0.00276835518889, 0.0311146546155, -0.141111046076, -0.134639054537, 0.285559028387, -0.0260977018625, 0.0673200562596, 0.0236891508102, -0.0669374018908, 0.205520644784, -0.0247650705278, -0.00554895028472, 0.0656268075109, -0.123405903578, -0.0294487457722, -0.116511374712, -0.0348856076598, 0.0376404114068, 0.0167275369167, 0.00200001872145, -0.000552317709662, -0.0849652215838, -0.250340282917, -0.180962443352, -0.0607596822083, -0.212399289012, -0.157900542021, -0.132566541433, -0.236142128706, -0.138925358653, 0.0197135340422, -0.275566875935, -0.300008654594, -0.221693471074, -0.359866946936, -0.0264196898788, 0.00387846818194, -0.255363225937, -0.287728428841, -0.0449826158583, -0.126533657312, 0.00560928508639, -0.210492327809, 0.0129067637026, 0.0134009895846, 0.00707849813625, 0.242407336831, 0.18316821754, 0.0483814477921, 0.0246791802347, 0.0803994238377, -0.135651022196, 0.0435833744705, -0.132278427482, 0.275304406881, -0.1690171808, -0.0542215034366, 0.101152047515, 0.0417746305466, 0.292151272297, -0.0453047007322, -0.0755288824439, 0.161824673414, 0.0597627311945, 0.0104853613302, 0.00767064932734, -0.0207827817649, 0.197145760059, -0.0822992175817, -0.0552404038608, -0.0581290014088, -0.066588640213, -0.0128538021818, 0.286529183388, 0.160465523601, 0.0620093494654, 0.100829340518, 0.292997449636, 0.19189709425, -0.182936936617, 0.175608858466, 0.0899558067322, 0.100331559777, 0.0962758362293, 0.01363332849, -0.0205615479499, 0.0115669919178, 0.0992425084114, 0.11999630183, 0.00387345766649, 0.00848446600139, -0.0105478605255, 0.263896286488, -0.0474944002926, -0.0140011189505, -0.0325032807887, 0.115508519113, 0.22431050241, 0.175751715899, 0.0689888894558, 0.158674702048, 0.00954006519169, 0.13716712594, 0.072023935616, 0.217623218894, 0.00706576230004, 0.238619327545, 0.217311874032, 0.205067589879, 0.14681750536, -0.0320479497313, -0.00467397645116, 0.275215744972, 0.221951842308, 0.0407680906355, 0.13229995966, 0.00323795666918, 0.0846445038915, -0.0583532601595, -0.0681771039963, 0.0293328873813, -0.0114367417991, 0.190069630742, 0.276168465614, -0.534501731396, 0.655485332012, 0.460402876139, 0.364807426929, 0.469944834709, 0.317033410072, 0.483729720116, 0.421320945024, 0.416073322296, 0.534798979759, 0.50755918026, 0.0301717612892, 0.0203323233873, 0.330607056618, 0.311695039272, 0.00860077794641, 0.398707330227, -0.0291346441954, -0.252075880766, -0.0207283031195, 0.0459254682064, 0.0284202191979, -0.157936826348, -0.173627480865, 0.386104792356, 0.515132844448, 0.328873902559, 0.409508317709, 0.453054875135, 0.414432734251, -0.041854955256, 0.273997426033, 0.424591004848, 0.189722567797, 0.339564651251, 0.0029656898696, 0.00252493401058, 0.0329298935831, 0.249973922968, 0.325905621052, -0.0333423726261, -0.28069382906, -0.0191419478506, 0.291281044483, -0.0442098118365, -0.062562033534, -0.00289117894135, 0.00996222160757, 0.00392162334174, 0.340754061937, 0.367484807968, 0.34169074893, 0.38352483511, 0.487880170345, 0.15541100502, 0.164117753506, 0.220458343625, 0.180857017636, 0.0979070961475, 0.166084006429, 0.0782912895083, -0.0214441437274, -0.0722749754786, -0.00150056031998, 0.276469260454, -0.0142708811909, 0.317340284586, -0.0323675051332, 0.444048851728, -0.0220963601023, 0.00100192055106, -0.034604024142, -0.0708497017622, 0.141554042697, 0.319678902626, 0.505133211613, 0.366021126509, 0.448314219713, 0.637741208076, 0.309784859419, -0.0982080772519, 0.305933505297, 0.160944506526, 0.184588477015, 0.237419009209, 0.246924996376, 0.0438005328178, -0.00596131477505, 0.315008044243, 0.226971104741, 0.0159288588911, 0.3159532547, -0.0428161509335, -0.104102447629, -0.0457421913743, -0.0437555126846, -0.0461279451847, 0.27064922452, -0.082458332181, 0.388659358025, 0.508891940117, -0.0465569086373, 0.628672838211, -0.00617007724941, 0.162059739232, 0.145088046789, 0.624251663685, 0.581682324409, 0.594695568085, 0.540238678455, 0.599758565426, 0.0223768688738, -0.00712027726695, 0.482238233089, 0.131510362029, -0.0306073501706, 0.643000483513, 0.00840178877115, -0.503748714924, -0.0238332636654, 0.00606075813994, 0.0244565885514, 0.0333935581148, -0.0230043362826, -0.0312210675329, 0.0394685938954, 0.0490583851933, -0.00578128080815, 0.0203696396202, -0.0124393254519, 0.00553403748199, -0.0305679533631, 0.00402468070388, 0.0187299512327, 0.0284079778939, -0.0302119813859, -0.0309234298766, 0.00712152896449, 0.016095995903, 0.043872948736, 0.0243706144392, -0.00110402412247, -0.0472946874797, -0.0148436157033, -0.0435258038342, -0.0369029715657, -0.0491426438093, 0.0561191849411, 0.0560320019722, -0.13850736618, -0.297749489546, -0.162436574697, -0.234689623117, -0.295042306185, -0.256879717112, 0.198268473148, -0.118766747415, -0.0261162742972, 0.00664653629065, -0.101854242384, 0.00563883315772, -0.0487272962928, 0.0196969807148, -0.012942972593, -0.0581710524857, -0.0516228564084, -0.0468096621335, -0.035240214318, -0.352690517902, 0.0297253765166, -0.0671190097928, -0.0551766417921, -0.195996254683, 0.0420458763838, -0.0495462790132, -0.32811370492, 0.102333962917, -0.0600827410817, -0.239305391908, -0.160555779934, -0.0968844592571, 0.181244641542, 0.213894933462, 0.0067636705935, 0.390555560589, 0.172561824322, -0.0444360636175, 0.0153581798077, 0.0479522421956, 0.118790850043, -0.0265569575131, 0.324146568775, 0.0291111152619, -0.432469040155, -0.0571626499295, -0.0198489204049, -0.0314280204475, -0.974545121193, 0.0763698071241, -0.0419953875244, 0.134506881237, -0.0391373150051, 0.0746561065316, -0.111389167607, 0.160064131021, -0.562124431133, -0.173171371222, -0.285282403231, -0.120599843562, -0.240372017026, -0.0979022085667, -0.0585008487105, -0.0126342196018, 0.0056856549345, -0.0110640404746, -0.0247603747994, -0.123946450651, -0.0295225270092, 0.081259816885, -0.00707322824746, 0.0105844754726, -0.0487729460001, -0.169503778219, 0.15910333395, 0.287914156914, 0.1781052351, 0.283204942942, 0.454573333263, -0.0329175293446, 0.463976621628, 0.140827864408, -0.0700829774141, 0.230988204479, 0.182770624757, 0.0720707029104, 0.0148844858631, -0.0554287284613, -0.0618702843785, 0.198750391603, 0.327458500862, -0.0143447685987, 0.0482711866498, 0.0163098424673, 0.513027608395, -0.0310720186681, -0.0715022906661, 0.00586880370975, 0.296227902174, 0.010982664302, -0.086987413466, -0.263768047094, -0.137962892652, -0.226863890886, -0.2988268435, -0.087822586298, 0.377715587616, -0.0680293217301, -0.143769726157, 0.0618825107813, -0.0435299649835, 0.0363883413374, 0.0182437077165, -0.0596864409745, -0.0637491121888, -0.0670202821493, -0.0418457575142, -0.0734031274915, -0.0523009002209, -0.295181453228, 0.0292367227376, -0.08399874717, -0.0449667461216, 0.0887506306171, 0.431527107954, 0.34173694253, 0.376746505499, 0.0528682880104, 0.350463837385, 0.240750312805, 0.234876558185, -0.0898679196835, -0.092038333416, 0.445489913225, 0.175281330943, 0.0855728387833, -0.163604021072, 0.0142375510186, 0.0166633110493, 0.539228439331, 0.0763117820024, 0.00871445331722, -0.114331506193, 0.0054250843823, -0.397956609726, -0.047351192683, -0.0462449863553, -0.0111769540235, 0.0429427437484, -0.313274472952, -0.0971717610955, -0.171137526631, -0.158213809133, -0.150754675269, 0.0458500124514, -0.0924321487546, -0.180867105722, -0.385836780071, -0.110564522445, -0.311821222305, -0.254992008209, -0.40610563755, -0.0589201450348, -0.0323690809309, -0.277344197035, -0.2760810256, -0.0221758298576, -0.472556203604, -0.0177989006042, -0.231166243553, -0.0301603283733, -0.0212719030678, 0.0143289640546, 0.00348513340577, -0.423071116209, 0.36849963665, 0.264226108789, 0.386162877083, 0.45689368248, 0.447590261698, -0.0290279407054, 0.0777324289083, 0.121047854424, 0.401334434748, -0.230436384678, 0.200547963381, -0.281735211611, -0.0127156339586, -0.0687505602837, 0.11898239702, -0.119439713657, -0.0340289510787, -0.113165669143, -0.0115246502683, 0.0768937096, -0.00721405912191, 0.00881041772664, -0.0388480350375, 0.0444915629923, -0.353158384562, -0.18640306592, -0.19835165143, -0.127320900559, -0.0872229635715, -0.25771561265, -0.116396375, -0.0713913962245, -0.253183096647, -0.151960328221, -0.288605958223, -0.206590354443, -0.286247074604, 0.0230902582407, -0.00852948520333, -0.201419472694, -0.302097350359, -0.02636003308, -0.335035473108, -0.0287334043533, -0.123125553131, -0.0448330417275, -0.0536572597921, -0.044380556792, 0.0995113328099, -0.273933678865, -0.237784862518, -0.210611313581, -0.33599793911, -0.240682080388, -0.351198792458, -0.231494694948, -0.0207474883646, -0.266280323267, -0.174895316362, -0.22973279655, -0.335051625967, -0.196904346347, -0.0207619089633, -0.0195835977793, -0.142120152712, -0.282416790724, -0.0230364333838, -0.310276448727, -0.0341814346611, -0.143087863922, 0.00989766046405, 0.0152575364336, -0.0411418601871, -0.195925980806, -0.339842379093, -0.196878701448, 0.0157177019864, -0.346325606108, -0.0484425872564, -0.235445305705, -0.0603800341487, -0.225403502584, -0.0409620143473, -0.181449890137, -0.209643736482, -0.199349671602, -0.253205686808, -0.0421107560396, -0.0179386101663, -0.366705298424, -0.13448856771, 0.00583922164515, -0.129199177027, 0.0294283218682, -0.166601404548, -0.0795811489224, -0.0165009349585, -0.0301524661481, -0.0203603096306, -0.319379776716, -0.244475200772, -0.168568924069, 0.0134976087138, -0.249541208148, -0.155029952526, -0.128009796143, -0.334573805332, -0.239866703749, -0.369946271181, -0.425967097282, -0.245385944843, -0.31241363287, -0.0446417070925, -0.0520428195596, -0.395450592041, -0.276481300592, -0.0191750526428, -0.0169694516808, 0.0288808941841, -0.0592918843031};
