//Numpy array shape (25, 10)
//Min -0.877381384373
//Max 0.741476714611
//Number of zeros 0

weight_default_t w3[25][10] = {0.0601580664515, 0.0287784729153, 0.0747939497232, -0.0316547974944, -0.0186710506678, 0.0238326434046, 0.03143074736, 0.0362989418209, -0.00834324210882, -0.00967993400991, 0.0215555876493, 0.00151194247883, -0.0445283316076, 0.000895182020031, -0.0847379416227, 0.000943293212913, -0.0377144776285, -0.0101307565346, -0.0201889630407, -0.0611474104226, 0.0172221958637, -0.00461426610127, -0.00478641595691, 0.0110587151721, -0.0123542118818, -0.0341331698, -0.00778763229027, 0.0290424898267, 0.0116298599169, 0.0101439859718, 0.213404849172, 0.206759259105, 0.240663185716, -0.0409692637622, 0.239335268736, 0.269818365574, -0.0834435597062, -0.173004344106, -0.155075445771, 0.296811491251, 0.125459939241, 0.116391330957, 0.0911721140146, -0.0202302206308, 0.159363210201, 0.144387617707, -0.877381384373, -0.301022201777, -0.797195971012, 0.0734785944223, 0.200541302562, 0.145095616579, 0.121634230018, -0.0540714971721, 0.13367049396, 0.185156881809, -0.220613285899, -0.0805536359549, -0.0631040781736, 0.205685988069, 0.383859217167, 0.43284162879, 0.345622271299, -0.0787443444133, 0.414123862982, 0.406304746866, 0.00934149790555, -0.0893784686923, 0.000757094705477, 0.443700551987, 0.166927486658, 0.188831239939, 0.230193987489, -0.0702902451158, 0.235408052802, 0.198236495256, -0.333670496941, -0.097898222506, -0.35026088357, 0.241210520267, 0.346181333065, 0.381722360849, 0.330155193806, -0.0313270427287, 0.393461704254, 0.315131545067, 0.186249777675, -0.148677349091, 0.144231557846, 0.363929063082, 0.701389014721, 0.702102720737, 0.673462688923, -0.0596926547587, 0.727962136269, 0.741476714611, 0.280867516994, 0.0444513298571, -0.172666668892, 0.705832839012, 0.242059335113, 0.21942743659, 0.136138036847, -0.000160197247169, 0.188018083572, 0.23671156168, -0.578575789928, -0.710755884647, -0.158034399152, 0.162495657802, 0.257431536913, 0.275320321321, 0.194480076432, -0.015716155991, 0.274738520384, 0.216486036777, -0.25256973505, 0.0655663833022, -0.302055925131, 0.280207127333, 0.117765255272, 0.173389986157, 0.161042377353, 0.0146753191948, 0.159282326698, 0.162955462933, -0.584932088852, -0.261337399483, 0.43346247077, 0.176098242402, 0.340025067329, 0.270041167736, 0.334069877863, -0.157133847475, 0.337883859873, 0.312281191349, 0.0760121122003, -0.041191585362, -0.386437863111, 0.282763659954, 0.0990087464452, 0.0522241070867, 0.083760522306, -0.0968027114868, 0.112432338297, 0.0556587576866, -0.3129581213, -0.294625610113, -0.256582140923, 0.0265610497445, 0.205185845494, 0.174803748727, 0.127405300736, -0.0634468719363, 0.191200226545, 0.181813687086, -0.0891808196902, 0.418962627649, 0.0694324970245, 0.117874264717, 0.148926094174, 0.181997105479, 0.167076826096, -0.13232177496, 0.118149466813, 0.113405764103, -0.0704410001636, -0.504063308239, -0.301098227501, 0.174728617072, -0.0323165990412, 0.014845483005, -0.0320285409689, 0.00577364303172, -0.0279623270035, -0.0321273542941, -0.0285287611187, -0.00378026044928, -0.0106353284791, -0.00747476704419, -0.0332440882921, -0.0345318578184, -0.00229022558779, -0.0515166893601, -0.017068952322, 0.0167340617627, -0.0332478582859, 0.033524800092, -0.0435620695353, -0.00698853190988, 0.0770184025168, 0.1516584903, 0.124462559819, -0.000684505444951, 0.139142736793, 0.0858006179333, 0.0262827146798, -0.103207401931, -0.253630161285, 0.158390179276, 0.163606002927, 0.183404028416, 0.183761864901, -0.0288608185947, 0.1385294348, 0.169026300311, -0.214812934399, -0.572132110596, -0.0496448799968, 0.178290590644, -0.0211167242378, -0.0212602615356, -0.0417199023068, -0.036200389266, -0.0248099714518, -0.000277641811408, 0.016289178282, 0.0315703600645, -0.0498958751559, 0.0466996505857, 0.214481681585, 0.270041406155, 0.284030288458, -0.0395886003971, 0.29104706645, 0.203295722604, 0.0987341031432, 0.0210630074143, -0.0447517111897, 0.285902172327, -0.0313461683691, -0.0211495161057, -0.0156050948426, 0.0455555431545, -0.0282665845007, -0.0253336634487, -0.0265698190778, -0.0380678996444, -0.00406280905008, -0.0379908420146, 0.715382874012, 0.630547702312, 0.684626281261, -0.0859272703528, 0.695938467979, 0.70211648941, -0.070193618536, -0.324187576771, 0.0376167669892, 0.682976663113};
